digraph Tree {
node [shape=box, style="filled, rounded", color="black", fontname=helvetica] ;
edge [fontname=helvetica] ;
0 [label="petal width (cm) <= 1.7\ngini = 0.66\nsamples = 89\nvalue = [44, 50, 56]\nclass = virginica", fillcolor="#f7f3fd"] ;
1 [label="petal length (cm) <= 2.35\ngini = 0.53\nsamples = 59\nvalue = [44, 49, 3]\nclass = versicolor", fillcolor="#ecfcf3"] ;
0 -> 1 [labeldistance=2.5, labelangle=45, headlabel="True"] ;
2 [label="gini = 0.0\nsamples = 29\nvalue = [44, 0, 0]\nclass = setosa", fillcolor="#e58139"] ;
1 -> 2 ;
3 [label="petal width (cm) <= 1.35\ngini = 0.11\nsamples = 30\nvalue = [0, 49, 3]\nclass = versicolor", fillcolor="#45e789"] ;
1 -> 3 ;
4 [label="gini = 0.0\nsamples = 18\nvalue = [0, 34, 0]\nclass = versicolor", fillcolor="#39e581"] ;
3 -> 4 ;
5 [label="petal length (cm) <= 5.0\ngini = 0.28\nsamples = 12\nvalue = [0, 15, 3]\nclass = versicolor", fillcolor="#61ea9a"] ;
3 -> 5 ;
6 [label="gini = 0.0\nsamples = 9\nvalue = [0, 14, 0]\nclass = versicolor", fillcolor="#39e581"] ;
5 -> 6 ;
7 [label="petal width (cm) <= 1.55\ngini = 0.38\nsamples = 3\nvalue = [0, 1, 3]\nclass = virginica", fillcolor="#ab7bee"] ;
5 -> 7 ;
8 [label="gini = 0.0\nsamples = 2\nvalue = [0, 0, 3]\nclass = virginica", fillcolor="#8139e5"] ;
7 -> 8 ;
9 [label="gini = 0.0\nsamples = 1\nvalue = [0, 1, 0]\nclass = versicolor", fillcolor="#39e581"] ;
7 -> 9 ;
10 [label="petal length (cm) <= 4.85\ngini = 0.04\nsamples = 30\nvalue = [0, 1, 53]\nclass = virginica", fillcolor="#833de5"] ;
0 -> 10 [labeldistance=2.5, labelangle=-45, headlabel="False"] ;
11 [label="sepal width (cm) <= 3.1\ngini = 0.32\nsamples = 3\nvalue = [0, 1, 4]\nclass = virginica", fillcolor="#a06aec"] ;
10 -> 11 ;
12 [label="gini = 0.0\nsamples = 2\nvalue = [0, 0, 4]\nclass = virginica", fillcolor="#8139e5"] ;
11 -> 12 ;
13 [label="gini = 0.0\nsamples = 1\nvalue = [0, 1, 0]\nclass = versicolor", fillcolor="#39e581"] ;
11 -> 13 ;
14 [label="gini = 0.0\nsamples = 27\nvalue = [0, 0, 49]\nclass = virginica", fillcolor="#8139e5"] ;
10 -> 14 ;
}